{"weight": [[[[-0.038787439465522766, -0.10789433121681213, 0.09064076840877533], [-0.1396072804927826, 0.0864063948392868, 0.11919654905796051], [0.16873253881931305, 0.08813171088695526, -0.23328283429145813]], [[-0.15289932489395142, 0.11768968403339386, 0.049332812428474426], [-0.18386757373809814, -0.13572195172309875, 0.22173674404621124], [0.15882040560245514, -0.10277211666107178, -0.059322670102119446]]], [[[-0.22452951967716217, -0.004236549139022827, -0.17749768495559692], [-0.18181052803993225, -0.012987107038497925, 0.035389527678489685], [-0.09652721881866455, 0.13986043632030487, -0.1434340476989746]], [[0.21386916935443878, 0.16152672469615936, -0.19876369833946228], [-0.058662593364715576, 0.010635510087013245, 0.03438921272754669], [0.055902525782585144, 0.09249623119831085, 0.014118596911430359]]], [[[-0.11500591039657593, 0.11153171956539154, -0.22609713673591614], [-0.13970230519771576, -0.0590033084154129, -0.11481372267007828], [-0.08245651423931122, -0.1931866854429245, -0.05013744533061981]], [[0.05038286745548248, -0.15355196595191956, -0.012096092104911804], [0.16872765123844147, -0.02423025667667389, 0.006550684571266174], [-0.020333781838417053, 0.04770176112651825, 0.14986880123615265]]], [[[0.2232680767774582, 0.1496841162443161, 0.22377891838550568], [-0.017046377062797546, -0.21173641085624695, -0.1117410734295845], [0.16049091517925262, -0.001527935266494751, -0.11715494841337204]], [[-0.1806214153766632, -0.22058244049549103, -0.1989346444606781], [-0.04780907928943634, 0.12926052510738373, 0.12743033468723297], [-0.22731877863407135, 0.14702685177326202, -0.18443924188613892]]]], "bias": [-0.049829885363578796, -0.09557081758975983, -0.04539985954761505, -0.046278417110443115]}