{"weight": [[[[-0.0017646551132202148, 0.12644095718860626, -0.19399359822273254], [-0.17346249520778656, -0.09078174829483032, 0.063205286860466], [-0.004670009016990662, 0.18688584864139557, -0.020917177200317383]], [[0.062369778752326965, -0.07123230397701263, -0.04633091390132904], [-0.2251777946949005, -0.15610139071941376, -0.0971619188785553], [0.008731260895729065, 0.09318138659000397, 0.14142672717571259]]], [[[-0.1597922444343567, -0.1026395708322525, 0.08561109006404877], [0.19572432339191437, -0.04850757122039795, 0.1763787716627121], [-0.03799128532409668, 0.024940624833106995, 0.21342279016971588]], [[-0.21865400671958923, -0.1483835130929947, -0.05967162549495697], [-0.09187673032283783, 0.2036469429731369, -0.15277740359306335], [-0.10850149393081665, -0.1646711379289627, -0.22074954211711884]]], [[[-0.13758894801139832, 0.20260919630527496, 0.10517467558383942], [0.1142384260892868, 0.0123959481716156, -0.1208406612277031], [0.03987722098827362, -0.22007395327091217, -0.17031049728393555]], [[-0.12151158601045609, 0.14871348440647125, 0.13819722831249237], [-0.10453277826309204, -0.008504703640937805, 0.1507459133863449], [0.23431943356990814, 0.09354601800441742, 0.03184168040752411]]], [[[0.15803514420986176, -0.13878203928470612, 0.04392169415950775], [-0.18274125456809998, -0.16336196660995483, -0.12175991386175156], [0.10664890706539154, 0.09479011595249176, -0.13961882889270782]], [[0.07120732963085175, 0.12939395010471344, -0.02974972128868103], [0.008999481797218323, 0.05461333692073822, 0.14622415602207184], [0.22631992399692535, -0.1816377192735672, -0.08637773990631104]]]], "bias": [0.09263332188129425, 0.1952909678220749, 0.20510981976985931, 0.20797349512577057]}